{"voxel_size": 0.006445670127868653, "block_size": 30, "grid_width": 449, "grid_height": 512, "grid_depth": 495, "atlas_width": 2048, "atlas_height": 2048, "atlas_depth": 32, "num_slices": 8, "min_x": -1.4073974609375002, "min_y": -1.7, "min_z": -1.533154296875, "atlas_blocks_x": 64, "atlas_blocks_y": 64, "atlas_blocks_z": 1, "input_height": 800.0, "input_width": 800.0, "input_focal": 1111.1110311937682, "worldspace_T_opengl": [[-1.0, 0.0, 0.0, 0.0], [0.0, 0.0, 1.0, 0.0], [0.0, 1.0, 0.0, 0.0], [0.0, 0.0, 0.0, 1.0]], "ndc": false, "0_weights": [[0.3894115686416626, 0.022775372490286827, -0.34442904591560364, 0.08394511044025421, -0.2793336808681488, 0.016494687646627426, -0.3121991455554962, 0.07499244809150696, 0.030591066926717758, 0.48946908116340637, 0.0707392618060112, -0.18856501579284668, -0.00597765576094389, -0.024854790419340134, 0.3574276268482208, 0.0010594570776447654], [-0.23592011630535126, 0.34989961981773376, 0.005966600030660629, 0.06795764714479446, -0.1737351417541504, -0.42255276441574097, -0.15852463245391846, 0.10953123867511749, 0.15287624299526215, -0.3392898738384247, -0.179917111992836, 0.030393512919545174, 0.20283018052577972, 0.10944768041372299, -0.038940779864788055, 0.3576319217681885], [0.23949040472507477, -0.11830703169107437, 0.023308461531996727, 0.26704099774360657, -0.1377716064453125, 0.20826995372772217, 0.279074102640152, -0.046004101634025574, -0.26613277196884155, 0.43371179699897766, 0.1442226767539978, 0.21651871502399445, -0.22021929919719696, -0.39824432134628296, 0.07363186776638031, -0.32883915305137634], [0.3269793391227722, -0.21436232328414917, -0.10325438529253006, 0.17468686401844025, -0.3118740916252136, 0.32127299904823303, 0.18002982437610626, 0.22541393339633942, 0.33439895510673523, 0.4491892457008362, -0.2639099657535553, -0.26799875497817993, -0.23954924941062927, 0.019913828000426292, -0.06572169810533524, 0.1631554514169693], [-0.17548364400863647, -0.1631695181131363, 0.2992154061794281, 0.34942081570625305, 0.2213381826877594, -0.40208086371421814, 0.17855693399906158, 0.16787877678871155, -0.222610741853714, 0.04307709261775017, 0.01766977086663246, -0.06329287588596344, -0.0873522013425827, -0.20553100109100342, 0.1398293823003769, -0.17988373339176178], [0.003216337878257036, -0.08768291026353836, 0.058494336903095245, -0.39231279492378235, -0.2794874906539917, -0.03831055015325546, -0.32560718059539795, -0.11068692803382874, 0.18747873604297638, -0.1385520100593567, -0.1162555068731308, 0.09584759920835495, 0.3074193596839905, -0.04886319860816002, -0.2097521275281906, -0.2740473747253418], [-0.1864769607782364, 0.06553149223327637, 0.21283212304115295, 0.3394192159175873, 0.1170714721083641, 0.30393683910369873, -0.3143788278102875, 0.12827739119529724, -0.023426182568073273, 0.05246966704726219, 0.1183435246348381, -0.2409059852361679, -0.09737499058246613, 0.035942401736974716, 0.09783792495727539, 0.32961514592170715], [-0.030568141490221024, 0.18592998385429382, 0.34394705295562744, -0.22089774906635284, 0.025233833119273186, 0.23314176499843597, -0.24936926364898682, -0.038993123918771744, -0.2872488796710968, -0.3348314166069031, -0.053326450288295746, 0.25287678837776184, 0.24492496252059937, 0.22815652191638947, -0.2502669394016266, 0.1124701276421547], [-0.37509891390800476, 0.06240878626704216, 0.16060014069080353, 0.17875507473945618, -0.014997557736933231, -0.015663331374526024, -0.09648627787828445, 0.08229589462280273, -0.2623189687728882, 0.25765568017959595, -0.048271652311086655, 0.20271414518356323, 0.10664393752813339, 0.18865631520748138, -0.04335811361670494, -0.09084314852952957], [-0.2896396815776825, -0.2788649797439575, -0.011337165720760822, -0.24796847999095917, 0.2968962788581848, 0.24200521409511566, -0.36575692892074585, 0.05631297826766968, 0.12503458559513092, 0.025779904797673225, -0.16713179647922516, 0.10395321995019913, 0.13759982585906982, -0.18972933292388916, 0.22897540032863617, -0.3113429844379425], [-0.3133983612060547, -0.26517483592033386, -0.2401278018951416, -0.2130289226770401, 0.29306864738464355, 0.197743222117424, -0.1665995866060257, -0.038924552500247955, 0.0195377916097641, 0.0032377499155700207, -0.23123538494110107, -0.12606759369373322, 0.00517941964790225, -0.12706302106380463, 0.002963295439258218, -0.14919963479042053], [-0.03844699636101723, 0.11510908603668213, -0.0943945124745369, -0.18719331920146942, -0.24989821016788483, -0.4643556773662567, -0.04863883554935455, 0.26121604442596436, -0.19930362701416016, 0.3052607774734497, 0.14755657315254211, 0.3679080307483673, 0.011689556762576103, 0.2242397665977478, 0.26755642890930176, 0.20717374980449677], [-0.2354394793510437, -0.26200199127197266, 0.24516497552394867, 0.25329768657684326, 0.17184147238731384, -0.0388190820813179, -0.09999880939722061, -0.05419164523482323, -0.15710750222206116, 0.07496768236160278, -0.08058036118745804, 0.14340521395206451, -0.010745853185653687, -0.17329776287078857, 0.22202545404434204, -0.1834840476512909], [-0.21520555019378662, 0.08691197633743286, 0.06595806032419205, 0.1947278082370758, 0.17709170281887054, -0.18436050415039062, 0.1013549417257309, -0.168659046292305, -0.029802685603499413, -0.10330197960138321, 0.1422620564699173, 0.0692000463604927, -0.03341933339834213, -0.005736211314797401, -0.12371667474508286, 0.03389604389667511], [-0.31791648268699646, -0.11604231595993042, -0.1622229963541031, -0.14905723929405212, 0.18208813667297363, -0.10128657519817352, 0.13572882115840912, 0.2984699010848999, -0.360942006111145, 0.047888558357954025, -0.0010700041893869638, -0.13475319743156433, -0.13854551315307617, 0.039261430501937866, 0.06427950412034988, -0.08888332545757294], [0.27595075964927673, 0.20065449178218842, 0.30388256907463074, -0.18378064036369324, -0.16400308907032013, 0.422768235206604, 0.2833612561225891, -0.20144863426685333, -0.17333339154720306, -0.13097357749938965, 0.21006815135478973, -0.14028386771678925, -0.21185235679149628, 0.41838833689689636, -0.32786351442337036, -0.16995632648468018], [-0.21958748996257782, -0.21711848676204681, 0.33986014127731323, -0.06645164638757706, 0.03996489197015762, 0.09346421808004379, 0.3298053443431854, -0.24899306893348694, -0.19290907680988312, -0.2667587697505951, 0.037033017724752426, 0.2520377039909363, -0.3207809329032898, 0.4342553913593292, 0.04641159623861313, 0.020604528486728668], [-0.18763069808483124, -0.28706178069114685, -0.2255912721157074, 0.39237701892852783, -0.13871441781520844, 0.3465547561645508, 0.06932013481855392, -0.21570634841918945, -0.22546182572841644, 0.2775001525878906, 0.32450616359710693, -0.0648067444562912, 0.21325992047786713, -0.03431471437215805, -0.0022253121715039015, -0.2456991821527481], [0.1208648756146431, 0.16564013063907623, -0.26969975233078003, 0.13163772225379944, 0.3039034903049469, 0.19403548538684845, -0.20432019233703613, -0.1189396008849144, -0.37026387453079224, 0.19051404297351837, -0.09641975164413452, -0.016925456002354622, 0.027012912556529045, -0.17912046611309052, -0.032202426344156265, 0.15865831077098846], [-0.10644761472940445, 0.15277764201164246, 0.3227836787700653, -0.16219249367713928, 0.2896418571472168, -0.058403681963682175, -0.09825552254915237, 0.11060309410095215, 0.11386802047491074, 0.14617283642292023, -0.21795761585235596, -0.1361670345067978, 0.08175543695688248, -0.14632761478424072, -0.3755059242248535, 0.43786168098449707], [-0.15852439403533936, 0.25235816836357117, -0.01911100000143051, 0.09848662465810776, 0.037354376167058945, -0.0774795413017273, 0.08123493194580078, -0.26041659712791443, -0.050870951265096664, 0.26091399788856506, 0.24369585514068604, 0.22199133038520813, -0.05512912571430206, -0.011162596754729748, 0.39232903718948364, 0.2102871537208557], [0.18154387176036835, -0.2380184531211853, 0.17353412508964539, -0.1790972501039505, 0.2906407117843628, -0.051763374358415604, -0.10849516838788986, 0.15984779596328735, 0.2405046969652176, -0.22335422039031982, 0.11847157776355743, 0.11254744231700897, -0.017549674957990646, -0.14665666222572327, 0.262029767036438, -0.3409498631954193], [-0.2888738811016083, -0.23256590962409973, -0.14058737456798553, 0.3635280132293701, -0.2480650693178177, -0.03771322965621948, -0.2600061893463135, -0.14409978687763214, -0.1102670282125473, 0.07082752138376236, 0.14592120051383972, -0.1636677235364914, -0.052510589361190796, 0.08510750532150269, 0.22685669362545013, -0.07271024584770203], [0.2158934473991394, -0.20245371758937836, -0.09677229821681976, -0.32149797677993774, 0.15228131413459778, 0.03623495250940323, 0.4526764154434204, 0.25588715076446533, 0.1049492284655571, 0.400429904460907, 0.18443460762500763, -0.3344997763633728, 0.2844884395599365, 0.2035960704088211, -0.22758470475673676, -0.07002490013837814], [0.22591814398765564, 0.09149066358804703, -0.020069964230060577, -0.2934192717075348, 0.06046264246106148, -0.1085808277130127, 0.05336610972881317, -0.1079590916633606, -0.14490413665771484, -0.022314824163913727, -0.09986365586519241, 0.09099122136831284, -0.13186602294445038, 0.09547415375709534, -0.047231853008270264, 0.16940748691558838], [-0.12384521216154099, -0.03680167719721794, -0.16472449898719788, -0.2019447386264801, 0.09841293841600418, -0.05571991577744484, -0.056977901607751846, -0.23084814846515656, 0.0946967825293541, -0.11305313557386398, -0.09634456783533096, -0.04983115941286087, -0.003363362979143858, 0.07577508687973022, -0.18708093464374542, 0.08309566229581833], [-0.2671668529510498, 0.16895551979541779, 0.13862717151641846, 0.31316304206848145, -0.30725619196891785, -0.16937918961048126, -0.3234749734401703, -0.092115618288517, 0.02581525780260563, -0.1156860888004303, 0.351043701171875, -0.0057796514593064785, -0.28957563638687134, 0.20891323685646057, 0.0752493217587471, 0.17440521717071533], [-0.16656653583049774, -0.13009504973888397, 0.18696655333042145, 0.25518175959587097, -0.015517395921051502, -0.1963966190814972, -0.14488819241523743, -0.2278612107038498, -0.12132895737886429, 0.16442131996154785, 0.43031877279281616, 0.3365805745124817, 0.16641467809677124, 0.4892416000366211, 0.4659156799316406, 0.2496456503868103], [0.044820986688137054, -0.06664831191301346, -0.1321587860584259, -0.31911665201187134, 0.02678297646343708, -0.04707861319184303, 0.3328557014465332, -0.13074058294296265, -0.08185107260942459, 0.15096646547317505, 0.4038318693637848, 0.4015812277793884, -0.23426856100559235, -0.011892217211425304, 0.05005953833460808, 0.29775354266166687], [-0.172113299369812, -0.2901446223258972, -0.19139492511749268, -0.0923776924610138, 0.11917934566736221, 0.06963716447353363, -0.12609031796455383, 0.09259458631277084, 0.15406286716461182, -0.11339150369167328, 0.09656935185194016, 0.39190465211868286, 0.17322705686092377, 0.37768441438674927, -0.011016353964805603, -0.024938873946666718], [-0.35932356119155884, 0.17266727983951569, 0.07404104620218277, 0.28243646025657654, 0.08829274773597717, 0.307341992855072, 0.35289785265922546, 0.19334816932678223, 0.30895182490348816, -0.35992541909217834, -0.030435368418693542, -0.049737900495529175, 0.03618158772587776, -0.1975753903388977, 0.377916544675827, -0.019639896228909492], [-0.198594331741333, -0.34839344024658203, -0.10860536247491837, 0.2980004549026489, 0.40248799324035645, 0.1734233796596527, 0.0597074031829834, -0.12323422729969025, -0.4109278619289398, -0.3552919924259186, -0.3727472126483917, -0.1068415492773056, -0.20281782746315002, 0.26410576701164246, 0.18156228959560394, 0.4844112992286682], [0.08707600831985474, 0.07030578702688217, -0.1764853298664093, 0.22859837114810944, -0.1099914163351059, 0.4559478461742401, 0.18552280962467194, 0.13599297404289246, -0.048013314604759216, -0.4078214168548584, -0.04705778881907463, -0.39244723320007324, -0.3921070992946625, 0.46130356192588806, -0.1814553141593933, 0.38611072301864624], [-0.23052990436553955, 0.36865997314453125, 0.3262995183467865, 0.11608093231916428, -0.17270278930664062, -0.30838117003440857, 0.25853684544563293, -0.10976184159517288, 0.07330447435379028, 0.3729064464569092, -0.12088897079229355, -0.4307668209075928, 0.22665807604789734, 0.24016313254833221, 0.25737982988357544, -0.4088391661643982]], "1_weights": [[-0.23565645515918732, -0.20699383318424225, -0.17543214559555054, -0.20611438155174255, -0.3324524760246277, 0.040449634194374084, 0.0421699583530426, -0.3661075830459595, -0.1405143290758133, -0.30032357573509216, 0.2019655406475067, -0.38368460536003113, -0.296783447265625, -0.03968026861548424, 0.016301771625876427, -0.27274200320243835], [0.24773861467838287, 0.08948609232902527, 0.3035057783126831, 0.45259854197502136, -0.07216040790081024, -0.11493219435214996, -0.323879212141037, 0.2726942300796509, -0.07286341488361359, 0.27825555205345154, -0.2515227794647217, -0.1837746798992157, 0.5134044289588928, 0.18578433990478516, -0.2521176338195801, 0.23138748109340668], [-0.22740821540355682, 0.321329265832901, 0.14390872418880463, -0.44477638602256775, 0.0401485301554203, -0.07352348417043686, 0.21098539233207703, 0.09813713282346725, -0.0365368127822876, 0.40190064907073975, -0.039544131606817245, 0.1430143117904663, -0.09214373677968979, -0.19667334854602814, -0.4133279323577881, -0.15579380095005035], [0.3519112765789032, -0.19547683000564575, -0.09695080667734146, 0.03624500334262848, 0.2285856008529663, -0.21079348027706146, -0.09022820740938187, 0.3211613893508911, 0.3711097240447998, -0.17373961210250854, 0.3090065121650696, 0.2642732560634613, 0.04134109243750572, 0.13746464252471924, -0.1402122676372528, 0.10239923000335693], [-0.0074761235155165195, -0.1729522943496704, 0.17189064621925354, 0.0747092217206955, 0.40048956871032715, -0.07586342841386795, -0.26707759499549866, 0.10198934376239777, -0.17652860283851624, -0.07478538900613785, -0.11810348927974701, 0.3152083158493042, 0.2710094749927521, -0.04700453206896782, -0.14366459846496582, 0.3916138708591461], [-0.13715983927249908, 0.16486237943172455, -0.18997043371200562, 0.23699171841144562, 0.36678582429885864, 0.053379934281110764, 0.21162235736846924, -6.926934293005615e-05, -0.16261588037014008, -0.19802816212177277, -0.363974928855896, 0.36045870184898376, -0.19930848479270935, -0.1948956400156021, -0.005496269557625055, 0.26162004470825195], [-0.09091821312904358, -0.036024898290634155, 0.09765463322401047, -0.07023312896490097, 0.39538195729255676, 0.05079823359847069, 0.22351329028606415, -0.4134081304073334, 0.38778403401374817, 0.15534618496894836, 0.04122733697295189, 0.4256294071674347, -0.09621317684650421, 0.2268720120191574, -0.11261431872844696, -0.27350303530693054], [0.3608628511428833, -0.03352578356862068, 0.37565335631370544, -0.053176503628492355, -0.26838424801826477, -0.10287252813577652, -0.3479662835597992, 0.3790380358695984, 0.33499544858932495, -0.42973047494888306, -0.0811551883816719, 0.11081333458423615, 0.4201962947845459, -0.3447173535823822, -0.1806643307209015, -0.17689967155456543], [-0.25778627395629883, 0.5968310832977295, 0.32750916481018066, -0.0745728462934494, 0.029415259137749672, 0.3112187087535858, 0.26903802156448364, 0.5612429976463318, -0.10871841758489609, -0.007811981253325939, 0.21437306702136993, 0.14778240025043488, -0.24597124755382538, 0.11575228720903397, -0.08165348321199417, 0.20801371335983276], [-0.2048608511686325, 0.17575614154338837, -0.23596777021884918, 0.2204139232635498, 0.12537379562854767, 0.27153879404067993, 0.1662425547838211, -0.09502077847719193, -0.4797731637954712, 0.08725765347480774, 0.14258554577827454, 0.2813951373100281, -0.24440641701221466, 0.6574999690055847, 0.20921911299228668, 0.6874746680259705], [-0.04588627815246582, -0.04713994637131691, 0.03621163219213486, -0.11362992227077484, -0.05234099552035332, 0.4901089072227478, -0.047336891293525696, -0.40278133749961853, 0.05691488832235336, -0.25941145420074463, -0.3438923954963684, 0.12975361943244934, 0.23145005106925964, 0.08253907412290573, -0.02428138628602028, -0.13144999742507935], [0.18000973761081696, 0.0831613838672638, -0.01695959083735943, -0.6456021666526794, 0.17049503326416016, 0.4064064919948578, 0.017354803159832954, -0.3586903214454651, -0.42541834712028503, -0.502201497554779, -0.04017334058880806, -0.24514852464199066, -0.23014172911643982, 0.25389522314071655, 0.1788775473833084, -0.09810174256563187], [0.0936504378914833, 0.2819572389125824, -0.2130250483751297, -0.13193123042583466, -0.41229110956192017, -0.38713309168815613, 0.25791996717453003, -0.08974380791187286, -0.2682582139968872, 0.26651865243911743, -0.001304222154431045, 0.04219852760434151, -0.2749331593513489, 0.45397600531578064, 0.4945182800292969, -0.07947243005037308], [0.12594619393348694, 0.3079180121421814, -0.3184042274951935, -0.4347328841686249, 0.4712221324443817, 0.0530257523059845, 0.3756527304649353, 0.0649726390838623, 0.001677613821811974, 0.17646007239818573, -0.40043702721595764, 0.22366641461849213, -0.01657816395163536, -0.18373629450798035, 0.2371433973312378, 0.3882046341896057], [0.2818295359611511, 0.13543207943439484, 0.05335213616490364, 0.05937475338578224, 0.05197271704673767, 0.08916488289833069, 0.12665900588035583, -0.239695206284523, -0.23002572357654572, -0.24572129547595978, -0.2924492359161377, 0.2466205358505249, 0.35125380754470825, 0.2647232413291931, 0.10660145431756973, 0.2518268823623657], [-0.1896296590566635, 0.1699763834476471, 0.17450372874736786, 0.231233149766922, 0.4906737804412842, -0.23866988718509674, 0.05693237856030464, -0.12676264345645905, 0.2512720823287964, -0.1310957968235016, -0.1484350860118866, 0.32665565609931946, -0.0932563841342926, 0.48961141705513, 0.26501524448394775, 0.11187440156936646]], "2_weights": [[0.18347518146038055, 0.14588569104671478, 0.062280070036649704], [0.3838638663291931, -0.3966101109981537, -0.5500058531761169], [0.21469493210315704, 0.5307866930961609, -0.34753963351249695], [0.0652354434132576, 0.09262597560882568, -0.5371090173721313], [-0.42975038290023804, -0.5985932350158691, -0.5985689163208008], [-0.6925645470619202, -0.7855702638626099, -0.15676936507225037], [-0.6527466773986816, 0.09530176222324371, -0.45456454157829285], [-0.1272493600845337, -0.09144783020019531, -0.357638955116272], [0.1563393473625183, 0.01906086876988411, -0.22551694512367249], [0.5361596345901489, 0.38613182306289673, 0.21357104182243347], [0.5330069661140442, 0.14891022443771362, 0.09743692725896835], [-0.249274343252182, -0.41993221640586853, -0.35638317465782166], [0.12990140914916992, 0.3720783591270447, -0.08524288237094879], [-0.5393126606941223, -0.07953611016273499, 0.4750206470489502], [0.45601996779441833, 0.13320615887641907, 0.3033849895000458], [-0.44772541522979736, 0.04178575053811073, 0.28967419266700745]], "0_bias": [0.02511531114578247, -0.024342430755496025, 0.0183703750371933, 0.08708549290895462, 0.07336875796318054, 0.10898347198963165, 0.06807961314916611, -0.05236998200416565, -0.006511760875582695, -0.018076397478580475, -0.0032053247559815645, -0.03957946598529816, -0.05593545362353325, 0.13226865231990814, -0.0040799896232783794, 0.07419420778751373], "1_bias": [-0.03702665865421295, 0.03411077335476875, 0.01672736182808876, 0.05005675181746483, 0.11150526255369186, 0.10844282805919647, 0.18135970830917358, -0.004213638138025999, -0.08093361556529999, -0.03288426250219345, -0.016046026721596718, 0.11743170768022537, -0.0058277929201722145, 0.027573393657803535, -0.07704514265060425, -0.03391294181346893], "2_bias": [-0.11478930711746216, -0.07712933421134949, -0.10684441030025482], "format": "png"}